<?xml version="1.0"?>
<opencv_storage>
<stage9>
  <maxWeakCount>10</maxWeakCount>
  <stageThreshold>-1.2576872110366821e+00</stageThreshold>
  <weakClassifiers>
    <_>
      <internalNodes>
        0 -1 3186 -1.1974623426795006e-02</internalNodes>
      <leafValues>
        1.4836223423480988e-01 -6.7346936464309692e-01</leafValues></_>
    <_>
      <internalNodes>
        0 -1 654157 5.7664014399051666e-02</internalNodes>
      <leafValues>
        -5.2485173940658569e-01 2.9584050178527832e-01</leafValues></_>
    <_>
      <internalNodes>
        0 -1 799514 -1.5260749496519566e-02</internalNodes>
      <leafValues>
        3.3216106891632080e-01 -4.5558431744575500e-01</leafValues></_>
    <_>
      <internalNodes>
        0 -1 553347 2.6994204381480813e-04</internalNodes>
      <leafValues>
        -2.1422339975833893e-01 5.9300112724304199e-01</leafValues></_>
    <_>
      <internalNodes>
        0 -1 1165642 -5.5300840176641941e-03</internalNodes>
      <leafValues>
        -6.6683489084243774e-01 2.5516420602798462e-01</leafValues></_>
    <_>
      <internalNodes>
        0 -1 951552 1.2806689483113587e-04</internalNodes>
      <leafValues>
        -3.7320592999458313e-01 3.6026307940483093e-01</leafValues></_>
    <_>
      <internalNodes>
        0 -1 91145 1.9159539078827947e-05</internalNodes>
      <leafValues>
        2.4023444950580597e-01 -6.0901480913162231e-01</leafValues></_>
    <_>
      <internalNodes>
        0 -1 1165640 2.2364503238350153e-03</internalNodes>
      <leafValues>
        1.3670863211154938e-01 -7.5823819637298584e-01</leafValues></_>
    <_>
      <internalNodes>
        0 -1 505804 5.6785764172673225e-04</internalNodes>
      <leafValues>
        -2.4899874627590179e-01 5.3195613622665405e-01</leafValues></_>
    <_>
      <internalNodes>
        0 -1 46802 1.3236827217042446e-03</internalNodes>
      <leafValues>
        1.2677453458309174e-01 -9.0773105621337891e-01</leafValues></_></weakClassifiers></stage9>
</opencv_storage>
