<?xml version="1.0"?>
<opencv_storage>
<stage6>
  <maxWeakCount>8</maxWeakCount>
  <stageThreshold>-1.4378465414047241e+00</stageThreshold>
  <weakClassifiers>
    <_>
      <internalNodes>
        0 -1 299390 5.9533283114433289e-02</internalNodes>
      <leafValues>
        -7.5577557086944580e-01 2.5323474407196045e-01</leafValues></_>
    <_>
      <internalNodes>
        0 -1 19070 -1.6784898936748505e-02</internalNodes>
      <leafValues>
        3.8985830545425415e-01 -5.8482843637466431e-01</leafValues></_>
    <_>
      <internalNodes>
        0 -1 735906 5.6343250907957554e-03</internalNodes>
      <leafValues>
        -2.9781556129455566e-01 6.0029625892639160e-01</leafValues></_>
    <_>
      <internalNodes>
        0 -1 1124359 4.9933665432035923e-03</internalNodes>
      <leafValues>
        -4.3604490160942078e-01 4.6002760529518127e-01</leafValues></_>
    <_>
      <internalNodes>
        0 -1 865255 9.0629828628152609e-04</internalNodes>
      <leafValues>
        -3.1784036755561829e-01 5.4549473524093628e-01</leafValues></_>
    <_>
      <internalNodes>
        0 -1 1154162 9.8003110906574875e-05</internalNodes>
      <leafValues>
        2.4719069898128510e-01 -8.2837271690368652e-01</leafValues></_>
    <_>
      <internalNodes>
        0 -1 893070 -4.1310826782137156e-04</internalNodes>
      <leafValues>
        5.3185182809829712e-01 -3.4778723120689392e-01</leafValues></_>
    <_>
      <internalNodes>
        0 -1 220894 -2.3225802578963339e-05</internalNodes>
      <leafValues>
        -7.0645266771316528e-01 2.5781968235969543e-01</leafValues></_></weakClassifiers></stage6>
</opencv_storage>
