<?xml version="1.0"?>
<opencv_storage>
<stage11>
  <maxWeakCount>10</maxWeakCount>
  <stageThreshold>-1.2490394115447998e+00</stageThreshold>
  <weakClassifiers>
    <_>
      <internalNodes>
        0 -1 1152004 7.8910943120718002e-03</internalNodes>
      <leafValues>
        -6.2632697820663452e-01 7.8740157186985016e-02</leafValues></_>
    <_>
      <internalNodes>
        0 -1 135588 -8.3079782780259848e-04</internalNodes>
      <leafValues>
        -5.3192341327667236e-01 1.7480671405792236e-01</leafValues></_>
    <_>
      <internalNodes>
        0 -1 302619 1.3962639968667645e-05</internalNodes>
      <leafValues>
        1.6438540816307068e-01 -6.3823217153549194e-01</leafValues></_>
    <_>
      <internalNodes>
        0 -1 90590 1.2826679274439812e-02</internalNodes>
      <leafValues>
        -2.6512742042541504e-01 3.8982713222503662e-01</leafValues></_>
    <_>
      <internalNodes>
        0 -1 22806 -5.1093194633722305e-04</internalNodes>
      <leafValues>
        -7.0560830831527710e-01 1.7241816222667694e-01</leafValues></_>
    <_>
      <internalNodes>
        0 -1 15535 -2.3883438110351563e-01</internalNodes>
      <leafValues>
        -8.9216566085815430e-01 9.9416062235832214e-02</leafValues></_>
    <_>
      <internalNodes>
        0 -1 344092 2.9763341881334782e-03</internalNodes>
      <leafValues>
        9.2212118208408356e-02 -8.6667382717132568e-01</leafValues></_>
    <_>
      <internalNodes>
        0 -1 990366 3.2540678512305021e-04</internalNodes>
      <leafValues>
        -2.7819401025772095e-01 4.0424203872680664e-01</leafValues></_>
    <_>
      <internalNodes>
        0 -1 198390 -8.3151534199714661e-02</internalNodes>
      <leafValues>
        7.6677310466766357e-01 -1.3345333933830261e-01</leafValues></_>
    <_>
      <internalNodes>
        0 -1 1066759 -1.2364512076601386e-04</internalNodes>
      <leafValues>
        3.1137284636497498e-01 -3.0161166191101074e-01</leafValues></_></weakClassifiers></stage11>
</opencv_storage>
