<?xml version="1.0"?>
<opencv_storage>
<stage2>
  <maxWeakCount>7</maxWeakCount>
  <stageThreshold>-1.2926987409591675e+00</stageThreshold>
  <weakClassifiers>
    <_>
      <internalNodes>
        0 -1 1122839 2.5123339146375656e-02</internalNodes>
      <leafValues>
        -7.3422563076019287e-01 5.3960394859313965e-01</leafValues></_>
    <_>
      <internalNodes>
        0 -1 30798 -2.0796425640583038e-02</internalNodes>
      <leafValues>
        5.0089091062545776e-01 -5.4580587148666382e-01</leafValues></_>
    <_>
      <internalNodes>
        0 -1 41259 -7.2304595960304141e-05</internalNodes>
      <leafValues>
        -6.6190248727798462e-01 3.0398148298263550e-01</leafValues></_>
    <_>
      <internalNodes>
        0 -1 492662 -2.1699062199331820e-04</internalNodes>
      <leafValues>
        -6.7560464143753052e-01 2.6845130324363708e-01</leafValues></_>
    <_>
      <internalNodes>
        0 -1 47108 -1.0536448098719120e-04</internalNodes>
      <leafValues>
        -6.4378523826599121e-01 2.6971414685249329e-01</leafValues></_>
    <_>
      <internalNodes>
        0 -1 491181 9.3841012567281723e-03</internalNodes>
      <leafValues>
        -3.8517841696739197e-01 5.0750702619552612e-01</leafValues></_>
    <_>
      <internalNodes>
        0 -1 1054155 2.7831122279167175e-03</internalNodes>
      <leafValues>
        -3.9643725752830505e-01 5.4753720760345459e-01</leafValues></_></weakClassifiers></stage2>
</opencv_storage>
